<?xml version="1.0"?>
<opencv_storage>
<cascade>
  <stageType>BOOST</stageType>
  <featureType>HAAR</featureType>
  <height>24</height>
  <width>24</width>
  <stageParams>
    <boostType>GAB</boostType>
    <minHitRate>9.9500000476837158e-01</minHitRate>
    <maxFalseAlarm>5.0000000000000000e-01</maxFalseAlarm>
    <weightTrimRate>9.4999998807907104e-01</weightTrimRate>
    <maxDepth>1</maxDepth>
    <maxWeakCount>100</maxWeakCount></stageParams>
  <featureParams>
    <maxCatCount>0</maxCatCount>
    <featSize>1</featSize>
    <mode>BASIC</mode></featureParams>
  <stageNum>15</stageNum>
  <stages>
    <!-- stage 0 -->
    <_>
      <maxWeakCount>3</maxWeakCount>
      <stageThreshold>-1.3273772001266479e+00</stageThreshold>
      <weakClassifiers>
        <_>
          <internalNodes>
            0 -1 24 -4.4731989502906799e-02</internalNodes>
          <leafValues>
            6.0000002384185791e-01 -9.7946083545684814e-01</leafValues></_>
        <_>
          <internalNodes>
            0 -1 36 3.9408087730407715e-02</internalNodes>
          <leafValues>
            -9.2285245656967163e-01 6.3414597511291504e-01</leafValues></_>
        <_>
          <internalNodes>
            0 -1 13 -1.0281337797641754e-01</internalNodes>
          <leafValues>
            5.7493615150451660e-01 -9.6365028619766235e-01</leafValues></_></weakClassifiers></_>
    <!-- stage 1 -->
    <_>
      <maxWeakCount>3</maxWeakCount>
      <stageThreshold>-1.5079071521759033e+00</stageThreshold>
      <weakClassifiers>
        <_>
          <internalNodes>
            0 -1 34 9.2069134116172791e-02</internalNodes>
          <leafValues>
            -8.8674700260162354e-01 6.3829785585403442e-01</leafValues></_>
        <_>
          <internalNodes>
            0 -1 35 1.2149287015199661e-01</internalNodes>
          <leafValues>
            -9.6149551868438721e-01 2.9917532205581665e-01</leafValues></_>
        <_>
          <internalNodes>
            0 -1 1 9.7179412841796875e-02</internalNodes>
          <leafValues>
            -9.2033553123474121e-01 4.0437698364257813e-01</leafValues></_></weakClassifiers></_>
    <!-- stage 2 -->
    <_>
      <maxWeakCount>3</maxWeakCount>
      <stageThreshold>-1.1953765153884888e+00</stageThreshold>
      <weakClassifiers>
        <_>
          <internalNodes>
            0 -1 2 2.6923388242721558e-01</internalNodes>
          <leafValues>
            -9.0821254253387451e-01 7.9166668653488159e-01</leafValues></_>
        <_>
          <internalNodes>
            0 -1 32 -1.2946706265211105e-02</internalNodes>
          <leafValues>
            6.4266258478164673e-01 -7.6624464988708496e-01</leafValues></_>
        <_>
          <internalNodes>
            0 -1 5 -1.2700315564870834e-02</internalNodes>
          <leafValues>
            4.7908067703247070e-01 -8.9558595418930054e-01</leafValues></_></weakClassifiers></_>
    <!-- stage 3 -->
    <_>
      <maxWeakCount>4</maxWeakCount>
      <stageThreshold>-2.1432776451110840e+00</stageThreshold>
      <weakClassifiers>
        <_>
          <internalNodes>
            0 -1 8 1.5990084409713745e-01</internalNodes>
          <leafValues>
            -8.7799042463302612e-01 6.5909093618392944e-01</leafValues></_>
        <_>
          <internalNodes>
            0 -1 20 -3.7924557924270630e-02</internalNodes>
          <leafValues>
            2.0550072193145752e-01 -9.2749017477035522e-01</leafValues></_>
        <_>
          <internalNodes>
            0 -1 43 -5.0176724791526794e-02</internalNodes>
          <leafValues>
            5.1407808065414429e-01 -7.4529463052749634e-01</leafValues></_>
        <_>
          <internalNodes>
            0 -1 30 -1.4950389413570520e-05</internalNodes>
          <leafValues>
            4.0749755501747131e-01 -9.7648775577545166e-01</leafValues></_></weakClassifiers></_>
    <!-- stage 4 -->
    <_>
      <maxWeakCount>3</maxWeakCount>
      <stageThreshold>-1.3863065242767334e+00</stageThreshold>
      <weakClassifiers>
        <_>
          <internalNodes>
            0 -1 16 -8.6174562573432922e-02</internalNodes>
          <leafValues>
            9.1304349899291992e-01 -8.6432749032974243e-01</leafValues></_>
        <_>
          <internalNodes>
            0 -1 3 3.5946350544691086e-02</internalNodes>
          <leafValues>
            -7.4117630720138550e-01 4.5320966839790344e-01</leafValues></_>
        <_>
          <internalNodes>
            0 -1 42 -3.5168476402759552e-02</internalNodes>
          <leafValues>
            -9.7518873214721680e-01 3.9476364850997925e-01</leafValues></_></weakClassifiers></_>
    <!-- stage 5 -->
    <_>
      <maxWeakCount>3</maxWeakCount>
      <stageThreshold>-1.3153762817382813e+00</stageThreshold>
      <weakClassifiers>
        <_>
          <internalNodes>
            0 -1 22 -8.5639819502830505e-02</internalNodes>
          <leafValues>
            8.2857143878936768e-01 -8.5948479175567627e-01</leafValues></_>
        <_>
          <internalNodes>
            0 -1 40 -5.3438194096088409e-02</internalNodes>
          <leafValues>
            2.5671368837356567e-01 -9.2858606576919556e-01</leafValues></_>
        <_>
          <internalNodes>
            0 -1 6 -1.4374613783729728e-05</internalNodes>
          <leafValues>
            5.1040673255920410e-01 -7.1260517835617065e-01</leafValues></_></weakClassifiers></_>
    <!-- stage 6 -->
    <_>
      <maxWeakCount>3</maxWeakCount>
      <stageThreshold>-1.3047719001770020e+00</stageThreshold>
      <weakClassifiers>
        <_>
          <internalNodes>
            0 -1 10 1.2829837203025818e-01</internalNodes>
          <leafValues>
            -8.8715487718582153e-01 6.9230771064758301e-01</leafValues></_>
        <_>
          <internalNodes>
            0 -1 4 2.2898837924003601e-01</internalNodes>
          <leafValues>
            -8.0193924903869629e-01 4.7494935989379883e-01</leafValues></_>
        <_>
          <internalNodes>
            0 -1 49 -1.4906963770044968e-05</internalNodes>
          <leafValues>
            4.0289571881294250e-01 -8.9256644248962402e-01</leafValues></_></weakClassifiers></_>
    <!-- stage 7 -->
    <_>
      <maxWeakCount>4</maxWeakCount>
      <stageThreshold>-1.3765143156051636e+00</stageThreshold>
      <weakClassifiers>
        <_>
          <internalNodes>
            0 -1 17 -6.8353071808815002e-02</internalNodes>
          <leafValues>
            6.7901235818862915e-01 -8.6714118719100952e-01</leafValues></_>
        <_>
          <internalNodes>
            0 -1 47 2.6754554710350931e-04</internalNodes>
          <leafValues>
            -9.3703943490982056e-01 8.0784097313880920e-02</leafValues></_>
        <_>
          <internalNodes>
            0 -1 18 -3.4189416328445077e-04</internalNodes>
          <leafValues>
            3.0089545249938965e-01 -8.6259007453918457e-01</leafValues></_>
        <_>
          <internalNodes>
            0 -1 27 -2.9581860871985555e-05</internalNodes>
          <leafValues>
            2.7243286371231079e-01 -1.</leafValues></_></weakClassifiers></_>
    <!-- stage 8 -->
    <_>
      <maxWeakCount>4</maxWeakCount>
      <stageThreshold>-1.9423532485961914e+00</stageThreshold>
      <weakClassifiers>
        <_>
          <internalNodes>
            0 -1 7 9.5571607351303101e-02</internalNodes>
          <leafValues>
            -8.3934807777404785e-01 6.9230771064758301e-01</leafValues></_>
        <_>
          <internalNodes>
            0 -1 50 1.4867359823256265e-05</internalNodes>
          <leafValues>
            -7.9387897253036499e-01 3.5592260956764221e-01</leafValues></_>
        <_>
          <internalNodes>
            0 -1 9 1.3499424792826176e-02</internalNodes>
          <leafValues>
            2.9677277803421021e-01 -9.5415443181991577e-01</leafValues></_>
        <_>
          <internalNodes>
            0 -1 33 -7.3194606229662895e-03</internalNodes>
          <leafValues>
            6.2741106748580933e-01 -6.0589897632598877e-01</leafValues></_></weakClassifiers></_>
    <!-- stage 9 -->
    <_>
      <maxWeakCount>5</maxWeakCount>
      <stageThreshold>-1.5119149684906006e+00</stageThreshold>
      <weakClassifiers>
        <_>
          <internalNodes>
            0 -1 25 4.8498593270778656e-02</internalNodes>
          <leafValues>
            -8.2379865646362305e-01 8.7999999523162842e-01</leafValues></_>
        <_>
          <internalNodes>
            0 -1 15 1.0165765881538391e-01</internalNodes>
          <leafValues>
            -6.2907570600509644e-01 8.7133759260177612e-01</leafValues></_>
        <_>
          <internalNodes>
            0 -1 14 -3.6487255245447159e-02</internalNodes>
          <leafValues>
            5.4262918233871460e-01 -7.9885923862457275e-01</leafValues></_>
        <_>
          <internalNodes>
            0 -1 39 -1.5630921116098762e-03</internalNodes>
          <leafValues>
            -8.0396246910095215e-01 4.6421316266059875e-01</leafValues></_>
        <_>
          <internalNodes>
            0 -1 45 1.2438509147614241e-03</internalNodes>
          <leafValues>
            2.7560538053512573e-01 -9.8185610771179199e-01</leafValues></_></weakClassifiers></_>
    <!-- stage 10 -->
    <_>
      <maxWeakCount>3</maxWeakCount>
      <stageThreshold>-1.1328926086425781e+00</stageThreshold>
      <weakClassifiers>
        <_>
          <internalNodes>
            0 -1 19 5.4351232945919037e-02</internalNodes>
          <leafValues>
            -8.3668637275695801e-01 3.9240506291389465e-01</leafValues></_>
        <_>
          <internalNodes>
            0 -1 37 1.4551691492670216e-05</internalNodes>
          <leafValues>
            -6.9840246438980103e-01 3.8549491763114929e-01</leafValues></_>
        <_>
          <internalNodes>
            0 -1 29 -1.4583302800019737e-05</internalNodes>
          <leafValues>
            5.0450986623764038e-01 -6.8170106410980225e-01</leafValues></_></weakClassifiers></_>
    <!-- stage 11 -->
    <_>
      <maxWeakCount>3</maxWeakCount>
      <stageThreshold>-1.2345838546752930e+00</stageThreshold>
      <weakClassifiers>
        <_>
          <internalNodes>
            0 -1 46 3.5544861108064651e-02</internalNodes>
          <leafValues>
            -8.2048332691192627e-01 6.7272728681564331e-01</leafValues></_>
        <_>
          <internalNodes>
            0 -1 44 -9.4913626089692116e-03</internalNodes>
          <leafValues>
            4.2324671149253845e-01 -6.9300150871276855e-01</leafValues></_>
        <_>
          <internalNodes>
            0 -1 0 -7.3871731758117676e-02</internalNodes>
          <leafValues>
            2.7890098094940186e-01 -9.8439723253250122e-01</leafValues></_></weakClassifiers></_>
    <!-- stage 12 -->
    <_>
      <maxWeakCount>3</maxWeakCount>
      <stageThreshold>-1.3238372802734375e+00</stageThreshold>
      <weakClassifiers>
        <_>
          <internalNodes>
            0 -1 26 -2.9853072017431259e-02</internalNodes>
          <leafValues>
            3.2075470685958862e-01 -8.6797064542770386e-01</leafValues></_>
        <_>
          <internalNodes>
            0 -1 12 -1.4902815564710181e-05</internalNodes>
          <leafValues>
            2.1906450390815735e-01 -8.4307926893234253e-01</leafValues></_>
        <_>
          <internalNodes>
            0 -1 52 -1.4672254110337235e-05</internalNodes>
          <leafValues>
            4.6924948692321777e-01 -6.7493110895156860e-01</leafValues></_></weakClassifiers></_>
    <!-- stage 13 -->
    <_>
      <maxWeakCount>4</maxWeakCount>
      <stageThreshold>-8.4150779247283936e-01</stageThreshold>
      <weakClassifiers>
        <_>
          <internalNodes>
            0 -1 11 7.9018831253051758e-02</internalNodes>
          <leafValues>
            -8.2678985595703125e-01 6.8965518474578857e-01</leafValues></_>
        <_>
          <internalNodes>
            0 -1 31 -1.1074326932430267e-02</internalNodes>
          <leafValues>
            7.5000506639480591e-01 -5.7846480607986450e-01</leafValues></_>
        <_>
          <internalNodes>
            0 -1 48 -2.2196171339601278e-03</internalNodes>
          <leafValues>
            -1. 2.9980462789535522e-01</leafValues></_>
        <_>
          <internalNodes>
            0 -1 41 3.0044344021007419e-04</internalNodes>
          <leafValues>
            -9.5012450218200684e-01 2.6394221186637878e-01</leafValues></_></weakClassifiers></_>
    <!-- stage 14 -->
    <_>
      <maxWeakCount>5</maxWeakCount>
      <stageThreshold>-1.7341941595077515e+00</stageThreshold>
      <weakClassifiers>
        <_>
          <internalNodes>
            0 -1 21 5.9996083378791809e-02</internalNodes>
          <leafValues>
            -8.4056270122528076e-01 5.7746475934982300e-01</leafValues></_>
        <_>
          <internalNodes>
            0 -1 28 4.6871151775121689e-02</internalNodes>
          <leafValues>
            -6.4185494184494019e-01 6.4685130119323730e-01</leafValues></_>
        <_>
          <internalNodes>
            0 -1 38 -1.1659942101687193e-03</internalNodes>
          <leafValues>
            -9.3442279100418091e-01 3.4247091412544250e-01</leafValues></_>
        <_>
          <internalNodes>
            0 -1 51 1.4197882264852524e-03</internalNodes>
          <leafValues>
            3.2350793480873108e-01 -8.7349694967269897e-01</leafValues></_>
        <_>
          <internalNodes>
            0 -1 23 -4.3123840441694483e-05</internalNodes>
          <leafValues>
            3.5913830995559692e-01 -8.6635553836822510e-01</leafValues></_></weakClassifiers></_></stages>
  <features>
    <_>
      <rects>
        <_>
          0 6 20 18 -1.</_>
        <_>
          0 6 10 9 2.</_>
        <_>
          10 15 10 9 2.</_></rects>
      <tilted>0</tilted></_>
    <_>
      <rects>
        <_>
          0 12 24 4 -1.</_>
        <_>
          8 12 8 4 3.</_></rects>
      <tilted>0</tilted></_>
    <_>
      <rects>
        <_>
          1 5 15 18 -1.</_>
        <_>
          6 5 5 18 3.</_></rects>
      <tilted>0</tilted></_>
    <_>
      <rects>
        <_>
          1 17 15 2 -1.</_>
        <_>
          6 17 5 2 3.</_></rects>
      <tilted>0</tilted></_>
    <_>
      <rects>
        <_>
          2 4 21 12 -1.</_>
        <_>
          9 4 7 12 3.</_></rects>
      <tilted>0</tilted></_>
    <_>
      <rects>
        <_>
          2 7 17 6 -1.</_>
        <_>
          2 9 17 2 3.</_></rects>
      <tilted>0</tilted></_>
    <_>
      <rects>
        <_>
          2 11 2 2 -1.</_>
        <_>
          2 12 2 1 2.</_></rects>
      <tilted>0</tilted></_>
    <_>
      <rects>
        <_>
          3 6 9 6 -1.</_>
        <_>
          6 6 3 6 3.</_></rects>
      <tilted>0</tilted></_>
    <_>
      <rects>
        <_>
          3 7 9 15 -1.</_>
        <_>
          6 7 3 15 3.</_></rects>
      <tilted>0</tilted></_>
    <_>
      <rects>
        <_>
          3 8 20 3 -1.</_>
        <_>
          13 8 10 3 2.</_></rects>
      <tilted>0</tilted></_>
    <_>
      <rects>
        <_>
          3 9 9 13 -1.</_>
        <_>
          6 9 3 13 3.</_></rects>
      <tilted>0</tilted></_>
    <_>
      <rects>
        <_>
          4 6 4 14 -1.</_>
        <_>
          6 6 2 14 2.</_></rects>
      <tilted>0</tilted></_>
    <_>
      <rects>
        <_>
          4 10 1 10 -1.</_>
        <_>
          4 15 1 5 2.</_></rects>
      <tilted>0</tilted></_>
    <_>
      <rects>
        <_>
          4 12 18 11 -1.</_>
        <_>
          13 12 9 11 2.</_></rects>
      <tilted>0</tilted></_>
    <_>
      <rects>
        <_>
          5 9 18 8 -1.</_>
        <_>
          5 9 9 4 2.</_>
        <_>
          14 13 9 4 2.</_></rects>
      <tilted>0</tilted></_>
    <_>
      <rects>
        <_>
          6 0 11 9 -1.</_>
        <_>
          6 3 11 3 3.</_></rects>
      <tilted>0</tilted></_>
    <_>
      <rects>
        <_>
          6 8 12 4 -1.</_>
        <_>
          10 8 4 4 3.</_></rects>
      <tilted>0</tilted></_>
    <_>
      <rects>
        <_>
          6 9 12 3 -1.</_>
        <_>
          10 9 4 3 3.</_></rects>
      <tilted>0</tilted></_>
    <_>
      <rects>
        <_>
          6 10 7 3 -1.</_>
        <_>
          6 11 7 1 3.</_></rects>
      <tilted>0</tilted></_>
    <_>
      <rects>
        <_>
          6 15 6 9 -1.</_>
        <_>
          8 15 2 9 3.</_></rects>
      <tilted>0</tilted></_>
    <_>
      <rects>
        <_>
          6 15 12 5 -1.</_>
        <_>
          12 15 6 5 2.</_></rects>
      <tilted>0</tilted></_>
    <_>
      <rects>
        <_>
          7 2 8 6 -1.</_>
        <_>
          7 5 8 3 2.</_></rects>
      <tilted>0</tilted></_>
    <_>
      <rects>
        <_>
          7 7 6 13 -1.</_>
        <_>
          10 7 3 13 2.</_></rects>
      <tilted>0</tilted></_>
    <_>
      <rects>
        <_>
          7 9 16 3 -1.</_>
        <_>
          7 10 16 1 3.</_></rects>
      <tilted>0</tilted></_>
    <_>
      <rects>
        <_>
          7 13 16 3 -1.</_>
        <_>
          15 13 8 3 2.</_></rects>
      <tilted>0</tilted></_>
    <_>
      <rects>
        <_>
          8 3 11 4 -1.</_>
        <_>
          8 5 11 2 2.</_></rects>
      <tilted>0</tilted></_>
    <_>
      <rects>
        <_>
          8 7 6 6 -1.</_>
        <_>
          10 7 2 6 3.</_></rects>
      <tilted>0</tilted></_>
    <_>
      <rects>
        <_>
          8 8 15 3 -1.</_>
        <_>
          8 9 15 1 3.</_></rects>
      <tilted>0</tilted></_>
    <_>
      <rects>
        <_>
          9 0 6 9 -1.</_>
        <_>
          9 3 6 3 3.</_></rects>
      <tilted>0</tilted></_>
    <_>
      <rects>
        <_>
          9 6 2 2 -1.</_>
        <_>
          9 7 2 1 2.</_></rects>
      <tilted>0</tilted></_>
    <_>
      <rects>
        <_>
          9 9 9 3 -1.</_>
        <_>
          9 10 9 1 3.</_></rects>
      <tilted>0</tilted></_>
    <_>
      <rects>
        <_>
          9 11 9 1 -1.</_>
        <_>
          12 11 3 1 3.</_></rects>
      <tilted>0</tilted></_>
    <_>
      <rects>
        <_>
          10 6 12 1 -1.</_>
        <_>
          16 6 6 1 2.</_></rects>
      <tilted>0</tilted></_>
    <_>
      <rects>
        <_>
          10 9 5 6 -1.</_>
        <_>
          10 11 5 2 3.</_></rects>
      <tilted>0</tilted></_>
    <_>
      <rects>
        <_>
          10 9 7 9 -1.</_>
        <_>
          10 12 7 3 3.</_></rects>
      <tilted>0</tilted></_>
    <_>
      <rects>
        <_>
          11 1 10 21 -1.</_>
        <_>
          11 8 10 7 3.</_></rects>
      <tilted>0</tilted></_>
    <_>
      <rects>
        <_>
          11 8 3 12 -1.</_>
        <_>
          11 12 3 4 3.</_></rects>
      <tilted>0</tilted></_>
    <_>
      <rects>
        <_>
          12 10 2 2 -1.</_>
        <_>
          12 10 1 1 2.</_>
        <_>
          13 11 1 1 2.</_></rects>
      <tilted>0</tilted></_>
    <_>
      <rects>
        <_>
          13 0 2 18 -1.</_>
        <_>
          13 0 1 9 2.</_>
        <_>
          14 9 1 9 2.</_></rects>
      <tilted>0</tilted></_>
    <_>
      <rects>
        <_>
          13 8 10 3 -1.</_>
        <_>
          13 9 10 1 3.</_></rects>
      <tilted>0</tilted></_>
    <_>
      <rects>
        <_>
          13 10 4 12 -1.</_>
        <_>
          13 16 4 6 2.</_></rects>
      <tilted>0</tilted></_>
    <_>
      <rects>
        <_>
          13 12 5 3 -1.</_>
        <_>
          13 13 5 1 3.</_></rects>
      <tilted>0</tilted></_>
    <_>
      <rects>
        <_>
          14 0 10 16 -1.</_>
        <_>
          14 8 10 8 2.</_></rects>
      <tilted>0</tilted></_>
    <_>
      <rects>
        <_>
          14 2 10 13 -1.</_>
        <_>
          19 2 5 13 2.</_></rects>
      <tilted>0</tilted></_>
    <_>
      <rects>
        <_>
          14 13 1 6 -1.</_>
        <_>
          14 16 1 3 2.</_></rects>
      <tilted>0</tilted></_>
    <_>
      <rects>
        <_>
          14 17 8 6 -1.</_>
        <_>
          14 19 8 2 3.</_></rects>
      <tilted>0</tilted></_>
    <_>
      <rects>
        <_>
          15 1 1 18 -1.</_>
        <_>
          15 7 1 6 3.</_></rects>
      <tilted>0</tilted></_>
    <_>
      <rects>
        <_>
          15 11 4 3 -1.</_>
        <_>
          15 12 4 1 3.</_></rects>
      <tilted>0</tilted></_>
    <_>
      <rects>
        <_>
          16 17 7 4 -1.</_>
        <_>
          16 19 7 2 2.</_></rects>
      <tilted>0</tilted></_>
    <_>
      <rects>
        <_>
          18 7 1 8 -1.</_>
        <_>
          18 11 1 4 2.</_></rects>
      <tilted>0</tilted></_>
    <_>
      <rects>
        <_>
          18 8 5 3 -1.</_>
        <_>
          18 9 5 1 3.</_></rects>
      <tilted>0</tilted></_>
    <_>
      <rects>
        <_>
          20 16 1 6 -1.</_>
        <_>
          20 19 1 3 2.</_></rects>
      <tilted>0</tilted></_>
    <_>
      <rects>
        <_>
          21 10 1 2 -1.</_>
        <_>
          21 11 1 1 2.</_></rects>
      <tilted>0</tilted></_></features></cascade>
</opencv_storage>
