<?xml version="1.0"?>
<opencv_storage>
<cascade>
  <stageType>BOOST</stageType>
  <featureType>HAAR</featureType>
  <height>24</height>
  <width>24</width>
  <stageParams>
    <boostType>GAB</boostType>
    <minHitRate>9.9500000476837158e-01</minHitRate>
    <maxFalseAlarm>5.0000000000000000e-01</maxFalseAlarm>
    <weightTrimRate>9.4999998807907104e-01</weightTrimRate>
    <maxDepth>1</maxDepth>
    <maxWeakCount>100</maxWeakCount></stageParams>
  <featureParams>
    <maxCatCount>0</maxCatCount>
    <featSize>1</featSize>
    <mode>BASIC</mode></featureParams>
  <stageNum>13</stageNum>
  <stages>
    <!-- stage 0 -->
    <_>
      <maxWeakCount>2</maxWeakCount>
      <stageThreshold>-5.3489089012145996e-01</stageThreshold>
      <weakClassifiers>
        <_>
          <internalNodes>
            0 -1 21 -1.0986650362610817e-02</internalNodes>
          <leafValues>
            6.5789473056793213e-01 -9.1019415855407715e-01</leafValues></_>
        <_>
          <internalNodes>
            0 -1 22 1.1340902745723724e-01</internalNodes>
          <leafValues>
            -1. 3.7530326843261719e-01</leafValues></_></weakClassifiers></_>
    <!-- stage 1 -->
    <_>
      <maxWeakCount>3</maxWeakCount>
      <stageThreshold>-9.5395934581756592e-01</stageThreshold>
      <weakClassifiers>
        <_>
          <internalNodes>
            0 -1 17 -5.5839316919445992e-03</internalNodes>
          <leafValues>
            4.5454546809196472e-01 -8.9307409524917603e-01</leafValues></_>
        <_>
          <internalNodes>
            0 -1 25 -2.9136762022972107e-03</internalNodes>
          <leafValues>
            8.4022420644760132e-01 -7.3126804828643799e-01</leafValues></_>
        <_>
          <internalNodes>
            0 -1 27 -8.0378428101539612e-03</internalNodes>
          <leafValues>
            8.3621060848236084e-01 -6.7723679542541504e-01</leafValues></_></weakClassifiers></_>
    <!-- stage 2 -->
    <_>
      <maxWeakCount>3</maxWeakCount>
      <stageThreshold>-1.0688164234161377e+00</stageThreshold>
      <weakClassifiers>
        <_>
          <internalNodes>
            0 -1 6 5.2301816642284393e-02</internalNodes>
          <leafValues>
            -8.5598140954971313e-01 9.4871795177459717e-01</leafValues></_>
        <_>
          <internalNodes>
            0 -1 10 -4.9321004189550877e-03</internalNodes>
          <leafValues>
            7.9257684946060181e-01 -7.1919167041778564e-01</leafValues></_>
        <_>
          <internalNodes>
            0 -1 3 4.7705173492431641e-02</internalNodes>
          <leafValues>
            -1. 5.0635665655136108e-01</leafValues></_></weakClassifiers></_>
    <!-- stage 3 -->
    <_>
      <maxWeakCount>4</maxWeakCount>
      <stageThreshold>-1.8188036680221558e+00</stageThreshold>
      <weakClassifiers>
        <_>
          <internalNodes>
            0 -1 33 -7.8199449926614761e-03</internalNodes>
          <leafValues>
            3.0337077379226685e-01 -8.9642417430877686e-01</leafValues></_>
        <_>
          <internalNodes>
            0 -1 20 -5.7315123267471790e-03</internalNodes>
          <leafValues>
            5.2709585428237915e-01 -7.8768074512481689e-01</leafValues></_>
        <_>
          <internalNodes>
            0 -1 26 -3.9425161667168140e-03</internalNodes>
          <leafValues>
            8.5722780227661133e-01 -5.9789210557937622e-01</leafValues></_>
        <_>
          <internalNodes>
            0 -1 4 4.8381574451923370e-02</internalNodes>
          <leafValues>
            4.6319338679313660e-01 -1.</leafValues></_></weakClassifiers></_>
    <!-- stage 4 -->
    <_>
      <maxWeakCount>5</maxWeakCount>
      <stageThreshold>-1.3690130710601807e+00</stageThreshold>
      <weakClassifiers>
        <_>
          <internalNodes>
            0 -1 23 9.5262601971626282e-03</internalNodes>
          <leafValues>
            -8.5697537660598755e-01 6.5957444906234741e-01</leafValues></_>
        <_>
          <internalNodes>
            0 -1 35 -2.4650384148117155e-05</internalNodes>
          <leafValues>
            3.8560670614242554e-01 -8.3075082302093506e-01</leafValues></_>
        <_>
          <internalNodes>
            0 -1 36 2.4372362531721592e-05</internalNodes>
          <leafValues>
            -7.3503166437149048e-01 4.5557332038879395e-01</leafValues></_>
        <_>
          <internalNodes>
            0 -1 13 -2.3236309061758220e-05</internalNodes>
          <leafValues>
            6.2515872716903687e-01 -6.4925992488861084e-01</leafValues></_>
        <_>
          <internalNodes>
            0 -1 30 -2.2056461602915078e-05</internalNodes>
          <leafValues>
            5.5345821380615234e-01 -7.0395773649215698e-01</leafValues></_></weakClassifiers></_>
    <!-- stage 5 -->
    <_>
      <maxWeakCount>3</maxWeakCount>
      <stageThreshold>-1.0872882604598999e+00</stageThreshold>
      <weakClassifiers>
        <_>
          <internalNodes>
            0 -1 37 7.8556844964623451e-03</internalNodes>
          <leafValues>
            -8.5797441005706787e-01 9.0243899822235107e-01</leafValues></_>
        <_>
          <internalNodes>
            0 -1 7 -4.6290364116430283e-03</internalNodes>
          <leafValues>
            7.0307737588882446e-01 -6.6629403829574585e-01</leafValues></_>
        <_>
          <internalNodes>
            0 -1 9 -8.6698227096349001e-04</internalNodes>
          <leafValues>
            -1. 4.3698021769523621e-01</leafValues></_></weakClassifiers></_>
    <!-- stage 6 -->
    <_>
      <maxWeakCount>3</maxWeakCount>
      <stageThreshold>-1.3529574871063232e+00</stageThreshold>
      <weakClassifiers>
        <_>
          <internalNodes>
            0 -1 38 1.6653910279273987e-02</internalNodes>
          <leafValues>
            -8.5331779718399048e-01 8.0487805604934692e-01</leafValues></_>
        <_>
          <internalNodes>
            0 -1 9 1.1605112813413143e-03</internalNodes>
          <leafValues>
            2.1640445291996002e-01 -9.7379863262176514e-01</leafValues></_>
        <_>
          <internalNodes>
            0 -1 14 -2.0785153537872247e-05</internalNodes>
          <leafValues>
            4.7415900230407715e-01 -7.1007245779037476e-01</leafValues></_></weakClassifiers></_>
    <!-- stage 7 -->
    <_>
      <maxWeakCount>4</maxWeakCount>
      <stageThreshold>-1.7869755029678345e+00</stageThreshold>
      <weakClassifiers>
        <_>
          <internalNodes>
            0 -1 31 8.5251796990633011e-03</internalNodes>
          <leafValues>
            -8.7484955787658691e-01 3.9130434393882751e-01</leafValues></_>
        <_>
          <internalNodes>
            0 -1 5 -2.3480895833927207e-05</internalNodes>
          <leafValues>
            3.6361014842987061e-01 -7.8077238798141479e-01</leafValues></_>
        <_>
          <internalNodes>
            0 -1 0 -2.1126936189830303e-05</internalNodes>
          <leafValues>
            4.3251645565032959e-01 -7.3811107873916626e-01</leafValues></_>
        <_>
          <internalNodes>
            0 -1 29 2.5599429136491381e-05</internalNodes>
          <leafValues>
            -5.3762507438659668e-01 6.9916343688964844e-01</leafValues></_></weakClassifiers></_>
    <!-- stage 8 -->
    <_>
      <maxWeakCount>4</maxWeakCount>
      <stageThreshold>-1.5946505069732666e+00</stageThreshold>
      <weakClassifiers>
        <_>
          <internalNodes>
            0 -1 1 -3.1817071139812469e-02</internalNodes>
          <leafValues>
            7.9487180709838867e-01 -8.4901279211044312e-01</leafValues></_>
        <_>
          <internalNodes>
            0 -1 32 -2.4422741262242198e-05</internalNodes>
          <leafValues>
            3.5680621862411499e-01 -7.5434786081314087e-01</leafValues></_>
        <_>
          <internalNodes>
            0 -1 12 -1.2541389092803001e-02</internalNodes>
          <leafValues>
            7.4488621950149536e-01 -4.5312944054603577e-01</leafValues></_>
        <_>
          <internalNodes>
            0 -1 16 -5.0853665015893057e-05</internalNodes>
          <leafValues>
            4.9152976274490356e-01 -7.3617613315582275e-01</leafValues></_></weakClassifiers></_>
    <!-- stage 9 -->
    <_>
      <maxWeakCount>3</maxWeakCount>
      <stageThreshold>-1.4385840892791748e+00</stageThreshold>
      <weakClassifiers>
        <_>
          <internalNodes>
            0 -1 19 2.8003681451082230e-02</internalNodes>
          <leafValues>
            -8.3696901798248291e-01 1.</leafValues></_>
        <_>
          <internalNodes>
            0 -1 20 -6.0152895748615265e-03</internalNodes>
          <leafValues>
            4.5161911845207214e-01 -9.5287364721298218e-01</leafValues></_>
        <_>
          <internalNodes>
            0 -1 28 -2.3823482479201630e-05</internalNodes>
          <leafValues>
            3.5125857591629028e-01 -8.0641299486160278e-01</leafValues></_></weakClassifiers></_>
    <!-- stage 10 -->
    <_>
      <maxWeakCount>2</maxWeakCount>
      <stageThreshold>-7.3731857538223267e-01</stageThreshold>
      <weakClassifiers>
        <_>
          <internalNodes>
            0 -1 2 -1.8347233533859253e-02</internalNodes>
          <leafValues>
            6.8181818723678589e-01 -8.5280376672744751e-01</leafValues></_>
        <_>
          <internalNodes>
            0 -1 24 -1.3351154047995806e-03</internalNodes>
          <leafValues>
            -9.9087208509445190e-01 1.1548517644405365e-01</leafValues></_></weakClassifiers></_>
    <!-- stage 11 -->
    <_>
      <maxWeakCount>5</maxWeakCount>
      <stageThreshold>-1.6601276397705078e+00</stageThreshold>
      <weakClassifiers>
        <_>
          <internalNodes>
            0 -1 18 2.4854429066181183e-02</internalNodes>
          <leafValues>
            -8.3908045291900635e-01 1.</leafValues></_>
        <_>
          <internalNodes>
            0 -1 24 -4.6717526856809855e-05</internalNodes>
          <leafValues>
            4.9823376536369324e-01 -8.9650684595108032e-01</leafValues></_>
        <_>
          <internalNodes>
            0 -1 39 2.4508399888873100e-02</internalNodes>
          <leafValues>
            -7.2025573253631592e-01 5.0547331571578979e-01</leafValues></_>
        <_>
          <internalNodes>
            0 -1 11 1.8800004618242383e-03</internalNodes>
          <leafValues>
            3.7451446056365967e-01 -9.5246869325637817e-01</leafValues></_>
        <_>
          <internalNodes>
            0 -1 15 -2.2056461602915078e-05</internalNodes>
          <leafValues>
            4.2120090126991272e-01 -7.8274178504943848e-01</leafValues></_></weakClassifiers></_>
    <!-- stage 12 -->
    <_>
      <maxWeakCount>3</maxWeakCount>
      <stageThreshold>-1.1983430385589600e+00</stageThreshold>
      <weakClassifiers>
        <_>
          <internalNodes>
            0 -1 40 3.9253495633602142e-02</internalNodes>
          <leafValues>
            -8.6013984680175781e-01 9.0476191043853760e-01</leafValues></_>
        <_>
          <internalNodes>
            0 -1 34 -1.0026473551988602e-02</internalNodes>
          <leafValues>
            5.6174379587173462e-01 -7.0805358886718750e-01</leafValues></_>
        <_>
          <internalNodes>
            0 -1 8 -2.5952090509235859e-03</internalNodes>
          <leafValues>
            -9.5392906665802002e-01 3.6985042691230774e-01</leafValues></_></weakClassifiers></_></stages>
  <features>
    <_>
      <rects>
        <_>
          0 1 2 2 -1.</_>
        <_>
          0 2 2 1 2.</_></rects>
      <tilted>0</tilted></_>
    <_>
      <rects>
        <_>
          0 22 8 2 -1.</_>
        <_>
          4 22 4 2 2.</_></rects>
      <tilted>0</tilted></_>
    <_>
      <rects>
        <_>
          0 23 10 1 -1.</_>
        <_>
          5 23 5 1 2.</_></rects>
      <tilted>0</tilted></_>
    <_>
      <rects>
        <_>
          3 0 14 18 -1.</_>
        <_>
          3 9 14 9 2.</_></rects>
      <tilted>0</tilted></_>
    <_>
      <rects>
        <_>
          5 1 16 11 -1.</_>
        <_>
          13 1 8 11 2.</_></rects>
      <tilted>0</tilted></_>
    <_>
      <rects>
        <_>
          5 3 3 2 -1.</_>
        <_>
          5 4 3 1 2.</_></rects>
      <tilted>0</tilted></_>
    <_>
      <rects>
        <_>
          5 6 7 6 -1.</_>
        <_>
          5 8 7 2 3.</_></rects>
      <tilted>0</tilted></_>
    <_>
      <rects>
        <_>
          6 13 3 2 -1.</_>
        <_>
          7 13 1 2 3.</_></rects>
      <tilted>0</tilted></_>
    <_>
      <rects>
        <_>
          7 0 9 3 -1.</_>
        <_>
          10 0 3 3 3.</_></rects>
      <tilted>0</tilted></_>
    <_>
      <rects>
        <_>
          7 3 8 2 -1.</_>
        <_>
          11 3 4 2 2.</_></rects>
      <tilted>0</tilted></_>
    <_>
      <rects>
        <_>
          7 14 3 2 -1.</_>
        <_>
          8 14 1 2 3.</_></rects>
      <tilted>0</tilted></_>
    <_>
      <rects>
        <_>
          8 0 9 4 -1.</_>
        <_>
          11 0 3 4 3.</_></rects>
      <tilted>0</tilted></_>
    <_>
      <rects>
        <_>
          8 8 3 11 -1.</_>
        <_>
          9 8 1 11 3.</_></rects>
      <tilted>0</tilted></_>
    <_>
      <rects>
        <_>
          8 15 1 2 -1.</_>
        <_>
          8 16 1 1 2.</_></rects>
      <tilted>0</tilted></_>
    <_>
      <rects>
        <_>
          9 9 1 2 -1.</_>
        <_>
          9 10 1 1 2.</_></rects>
      <tilted>0</tilted></_>
    <_>
      <rects>
        <_>
          9 11 9 3 -1.</_>
        <_>
          9 12 9 1 3.</_></rects>
      <tilted>0</tilted></_>
    <_>
      <rects>
        <_>
          9 12 9 3 -1.</_>
        <_>
          9 13 9 1 3.</_></rects>
      <tilted>0</tilted></_>
    <_>
      <rects>
        <_>
          9 13 3 2 -1.</_>
        <_>
          10 13 1 2 3.</_></rects>
      <tilted>0</tilted></_>
    <_>
      <rects>
        <_>
          10 8 3 6 -1.</_>
        <_>
          11 8 1 6 3.</_></rects>
      <tilted>0</tilted></_>
    <_>
      <rects>
        <_>
          10 9 3 5 -1.</_>
        <_>
          11 9 1 5 3.</_></rects>
      <tilted>0</tilted></_>
    <_>
      <rects>
        <_>
          10 11 3 3 -1.</_>
        <_>
          11 11 1 3 3.</_></rects>
      <tilted>0</tilted></_>
    <_>
      <rects>
        <_>
          10 11 3 5 -1.</_>
        <_>
          11 11 1 5 3.</_></rects>
      <tilted>0</tilted></_>
    <_>
      <rects>
        <_>
          11 0 7 24 -1.</_>
        <_>
          11 8 7 8 3.</_></rects>
      <tilted>0</tilted></_>
    <_>
      <rects>
        <_>
          11 10 2 3 -1.</_>
        <_>
          12 10 1 3 2.</_></rects>
      <tilted>0</tilted></_>
    <_>
      <rects>
        <_>
          11 12 4 3 -1.</_>
        <_>
          11 13 4 1 3.</_></rects>
      <tilted>0</tilted></_>
    <_>
      <rects>
        <_>
          11 13 3 1 -1.</_>
        <_>
          12 13 1 1 3.</_></rects>
      <tilted>0</tilted></_>
    <_>
      <rects>
        <_>
          12 11 3 2 -1.</_>
        <_>
          13 11 1 2 3.</_></rects>
      <tilted>0</tilted></_>
    <_>
      <rects>
        <_>
          13 10 3 6 -1.</_>
        <_>
          14 10 1 6 3.</_></rects>
      <tilted>0</tilted></_>
    <_>
      <rects>
        <_>
          13 10 7 3 -1.</_>
        <_>
          13 11 7 1 3.</_></rects>
      <tilted>0</tilted></_>
    <_>
      <rects>
        <_>
          13 15 2 1 -1.</_>
        <_>
          14 15 1 1 2.</_></rects>
      <tilted>0</tilted></_>
    <_>
      <rects>
        <_>
          14 0 2 2 -1.</_>
        <_>
          14 1 2 1 2.</_></rects>
      <tilted>0</tilted></_>
    <_>
      <rects>
        <_>
          15 6 1 6 -1.</_>
        <_>
          15 8 1 2 3.</_></rects>
      <tilted>0</tilted></_>
    <_>
      <rects>
        <_>
          15 10 1 2 -1.</_>
        <_>
          15 11 1 1 2.</_></rects>
      <tilted>0</tilted></_>
    <_>
      <rects>
        <_>
          16 8 1 9 -1.</_>
        <_>
          16 11 1 3 3.</_></rects>
      <tilted>0</tilted></_>
    <_>
      <rects>
        <_>
          16 8 3 7 -1.</_>
        <_>
          17 8 1 7 3.</_></rects>
      <tilted>0</tilted></_>
    <_>
      <rects>
        <_>
          16 11 1 3 -1.</_>
        <_>
          16 12 1 1 3.</_></rects>
      <tilted>0</tilted></_>
    <_>
      <rects>
        <_>
          16 18 4 2 -1.</_>
        <_>
          16 18 2 1 2.</_>
        <_>
          18 19 2 1 2.</_></rects>
      <tilted>0</tilted></_>
    <_>
      <rects>
        <_>
          18 10 3 2 -1.</_>
        <_>
          19 10 1 2 3.</_></rects>
      <tilted>0</tilted></_>
    <_>
      <rects>
        <_>
          18 11 3 5 -1.</_>
        <_>
          19 11 1 5 3.</_></rects>
      <tilted>0</tilted></_>
    <_>
      <rects>
        <_>
          19 4 2 15 -1.</_>
        <_>
          19 9 2 5 3.</_></rects>
      <tilted>0</tilted></_>
    <_>
      <rects>
        <_>
          19 10 4 14 -1.</_>
        <_>
          19 10 2 7 2.</_>
        <_>
          21 17 2 7 2.</_></rects>
      <tilted>0</tilted></_></features></cascade>
</opencv_storage>
